{"weights1":{"v":1,"dim":[32,10],"data":[0.11921147890927256,0.10379686205884153,0.11869592091718978,0.12440651118491844,-0.028118547861521327,0.12380142550204666,0.12865299706775002,-0.2267249805146717,0.12895700081179387,-0.2742596653673923,-0.11989296969478742,-0.022992777326322305,-0.05295444860467079,-0.005839141494617359,0.04186790748693004,0.057993658549033315,0.07686000251662232,-0.0003012093085454731,-0.11810385218753283,-0.2505768766284345,-0.06431921438559851,-0.0426102642324665,-0.15548576350705473,0.10964224757734736,0.04964541110337465,0.021017470400869393,0.002916066127552862,0.11850498884099332,-0.007211029208242071,0.19277711401406877,-0.048284504405686414,0.06527170044898407,0.02620618143462548,-0.03661651730169011,-0.07411997337324726,-0.010500632389500567,-0.037951025255850875,-0.10682047331763075,-0.10525481733432566,-0.05156699563157437,0.1442878401485414,-0.012614754548892302,0.12603204727213632,0.33762635067813196,-0.009003735745709335,0.0429683203666833,-0.01666406057247617,-0.057358856771665453,0.15860102409102736,0.24051851882778136,0.2767731495468219,0.10796468247942356,0.3559583061339731,0.22892760127731324,-0.08158093527683091,0.198552115766227,-0.1073038333076972,-0.23010981626808666,0.21187411489086744,0.1827298790390309,-0.09500800736151851,-0.13940946617694852,-0.04621358412780267,-0.011498708146491364,-0.03759981071963144,-0.10277480113115675,0.1262335627927161,-0.006716039266949432,0.03537581629613813,0.1695516010785642,0.042296864080345255,-0.14276614552152064,0.07201839618060958,-0.06158848296536464,0.06253299224557438,0.055761109410550604,-0.05835853468304966,-0.11148257283489937,0.18767062207911983,0.08596261001712141,-0.10570584764504831,-0.008442631350341227,-0.06280796114147476,-0.01701463889628794,-0.04748069099175023,-0.01774123015870683,-0.0403024361629648,0.3192373684171287,-0.1710096364089537,-0.005317707233087297,0.10303967505931641,0.23515931919899755,0.06179877574604786,0.11623582572446978,0.09919196616032774,0.15513781080853284,0.13387036038264266,0.2762880472619033,0.20829106986973844,-0.446639542886017,-0.022641316060399333,0.0190801544896263,0.03692057274536345,0.00398658567546941,-0.04761293020355636,0.07235803734228073,0.09543843865319894,-0.14583226055738158,0.04683467049020595,-0.02369790746862204,0.04282053107808162,0.25436932385868777,0.028642351411712768,0.16196153343935119,0.1126889512412366,-0.1970879196702353,0.018730774302454716,1.0487549233706712,0.04047477451991835,-0.21962450156576888,-0.041541732564196826,0.03645850190793782,0.15860891850023404,0.004552565427046548,0.047879516297624145,-0.0058331491535097675,0.02352389339484477,0.15240674558843847,0.12311903500855502,-0.05478376833378868,0.12635641935768568,-0.054648557308649155,0.20954432327410583,-0.040989820803827307,0.2477049963224664,0.15436639146976208,0.14691766918195756,-0.024614556112672922,-0.05853835869002159,-0.31445546632566274,-0.17712300679201945,0.06989222714903544,-0.10379484159570283,-0.06162452087702841,-0.01576777902161806,-0.02323174019657107,-0.04162237204985976,-0.08222540841091537,0.026126318302876376,-0.13366065468578453,0.09223023439364647,-0.011202281914647257,0.2788142957509036,0.24309129587119513,0.14284621445917842,0.027457856648301717,0.16321230334573958,-0.5183422067767456,0.08252406621520668,-0.19266486059011226,0.08639149227631983,0.09435779007048126,0.25293000726155307,0.003713771356558811,0.026904819547125307,0.11799390309362714,0.08053613460918523,-0.12032083001442861,0.08113754300295001,-0.5572903347785744,-0.056712986924774354,0.04216785576752874,-0.02012400684144316,0.04661717043019234,-0.15665294071416708,-0.08371388567159342,-0.10902733329207957,-0.049459656423220574,0.02538728630430005,0.6943104928420227,0.13321707698610527,-0.17887102394835658,-0.058103047729228904,0.051026147812688445,0.0698217330490161,0.0012379392826236842,0.03584143487043913,0.05533083933881611,0.01982790505825052,-0.004680629902598334,-0.19228420778883337,0.034716253859017054,0.05848407640917536,-0.12461516593738017,-0.09703869664474334,0.16527989474814864,-0.13195913465134781,0.00844083793768776,0.19762498463208703,0.03343189118329289,-0.19752128516490755,0.10885957690338396,-0.2865053143835775,0.052178194094126516,0.05982454431719427,-0.14025166874149037,0.1536924969621777,0.10838257756006385,0.04032100173659602,0.008633383778942046,-0.07898795034177336,0.15728322602996322,0.027103951357894486,0.03325324022243556,0.10016466666551893,0.05602382745948609,-0.021928466900601108,0.29932538340834136,0.10397108370127729,-0.015029474056594706,-0.13448172559417468,-0.016434652680959838,0.16069219085503675,-0.01274572976188246,-0.10816387333144872,-0.013219555362992309,0.000454382390825562,-0.1697388025635636,0.20479854774225253,0.09326072566592873,0.07050227660806332,0.14469609298429364,0.03008611752218622,0.06654855059988128,-0.033089468551795786,-0.2598415104824566,-0.12231346875876463,0.12568353632798207,-0.19792324834840677,0.19372777016100445,-0.1332083768712819,-0.194805889757323,-0.051077773866563043,-0.06356041807437544,-0.17840903702598823,0.0587178636661636,0.0005287296208986653,-0.165482201726917,0.05558347073603088,0.027712544273373316,0.013356056101204473,0.015849702929479948,0.2933873508015569,0.11539302663736783,0.02364031049408269,0.04665645724442077,-0.016557858916445276,-0.14483163530074672,0.08625153935907105,0.392975126469679,-0.008224963861416692,-0.010331216468597844,0.11755390558180213,0.14467038225741574,0.16619244251065435,0.09903574403592309,-0.20977673477119205,0.13428741740027564,-0.13064112841975767,0.30975635753184794,0.27542786132061947,0.03580736872703218,0.13263092338951346,0.13348168939691693,0.014078275685089589,0.09385358319251287,0.16404705165534741,-0.7993009220225171,0.03386609095893717,0.1133886053257955,-0.03550788546620004,-0.054273707627162444,-0.06007117178156169,0.06814269808506883,-0.053070534133016545,-0.030285682247540337,0.10208560953158152,-0.015725824980760653,-0.18214038885139194,0.14742440220005187,0.030287933270112775,0.0034963892533956763,0.46689357643943674,0.08704319416500754,-0.1346530627916622,0.00012228006822976534,-0.2715624528112369,-0.35318779920458376,0.0063933617675290145,0.6234677465132801,-0.1342390451193517,-0.030287157654088435,0.07977258544084047,0.20047535629308016,0.029155721813937358,-0.06335046393128614,-0.14698976635166192,0.1998074562673382,0.09757892255909323,0.24567365854963194,-0.05258266056973011,0.06984849037038605,0.1981514918676455,0.1371753842647175,0.20476789132049786,0.060440175549846736,0.01907947689285857,-0.31785854172914885,-0.11997643614357172,0.4754270271752925]},"biases1":{"v":1,"dim":[32],"data":[0.18555363085968535,-0.09269655825461984,0.024366916536327964,0.008872329328962298,0.05578050187067666,0.15149754029627557,-0.015605372913862764,-0.15105274099710725,0.19731730275897152,0.06331422220325188,-0.0033437228086756463,0.07434026918830496,0.01649182833761753,0.24064433338846475,-0.1332238443846095,0.2812658004860418,0.33905334449396235,0.21301120304968388,-0.12029501851326939,0.07773333803591302,-0.0016186331894570516,0.22881217603353834,-0.08605233901337371,0.016024946645810636,0.02765937194052435,-0.11808710942771401,0.04027837008758178,0.18023901172231466,-0.0825900092939529,0.1967231886901614,-0.13730347031014506,0.18267441898795614]},"weights2":{"v":1,"dim":[16,32],"data":[0.07837893297593038,-0.01627336072577683,-0.11512267661492265,0.0319092077403136,-0.1713255634747407,-0.050367350550114154,0.048800734497874254,-0.06018360568815885,-0.12348215557150423,-0.34778255432188515,-0.04925157084127201,0.03591138443463228,-0.18778313294448815,0.03552293790148953,0.11627958997674462,0.09065841850661881,0.0718210427606559,-0.03770965345180505,-0.15855780679938486,-0.029651038520156704,0.10894732817436212,0.06086598851593416,0.09274513544941626,-0.05342649774945905,-0.02796415204920606,0.21985951414591212,0.06889212761879204,-0.01972393205885681,-0.12135425880506286,0.05478556511300842,0.12657113479234755,0.0011315146980806904,-0.07397317296891318,-0.02929976042311803,0.10004474200597285,0.1660837584829538,-0.0033424117979975023,-0.06280033477467384,-0.07943137379409593,0.06215662218544667,-0.022145756584039274,-0.0848179223196644,0.0032348146460217577,-0.05201848130939824,-0.10671509764605319,-0.13527043237466235,-0.16861778237423647,-0.07276765828827209,0.046956288724959556,-0.07290555117203837,0.16543531077929477,-0.030767229439485448,0.15603417070965034,0.04284338885742348,0.07269269090254508,0.24691802110183161,0.076172163649778,0.0826562696555207,-0.04617686795881495,0.19463012715720437,-0.006105989347535869,-0.10795908058070075,-0.12157852375771479,-0.24149690531921397,0.026305273392251537,0.0991198196374026,-0.18383366929887693,0.06274596784142185,0.051293853049612974,0.08171619139933146,-0.18299112056559114,0.07578741304220658,-0.10529981122046556,0.28405318822228076,-0.01882726102283732,0.2541558200586117,0.027014266541490545,0.29543261764977025,-0.04938729802352113,0.33997991903445196,0.3465257042357012,-0.25609556362680663,-0.11677330044788735,0.10982530418342983,0.2347611956049876,-0.08190342835431388,-0.14365584316362054,-0.07289481434561298,-0.05211043738469133,0.055091834558644664,0.1286153553011876,0.14175933056493967,0.02000376482609537,0.1453963497127138,-0.031685467255043585,-0.0001798526257440031,0.03714496702964413,-0.10352369802081936,-0.0768625891944151,-0.16155030430725748,0.07198666911079567,-0.14621009157780943,-0.12498820356479774,-0.0890440173496185,0.005034441040853886,0.18837210073169533,0.15476066776245967,-0.026131238601594255,0.051592291565988234,0.2578721894558051,0.08907244651891799,0.17292407915700164,-0.019847479846008303,-0.03532966914147392,0.027755962385937062,-0.10228256547277632,0.11352608699254682,0.1276570958729781,-0.0626423528923099,0.0050346827040398815,-0.14866111691163614,0.17756958056298536,0.04375337595413351,-0.005061021478858213,0.1439758351060286,0.04868558890368684,-0.29921167887471944,0.08176195963492525,-0.1842933708156392,-0.004558012192147523,-0.000990790887644215,0.004846241337978554,-0.03322446184657762,-0.018161941599769988,0.0927006499296835,-0.07828695344737524,0.09245809120018901,0.20899836398220345,-0.002574783440747721,0.376539391499056,0.0033107104045323817,0.037794241903778086,-0.0022135826817532714,-0.1871540243355738,0.0028233306255786364,0.1946354753085955,-0.020372011848786575,-0.18734439159910596,0.051546559751017164,0.2622332117584976,0.1986481606967047,0.2505073428822059,0.16335579031211242,0.1276214573926315,0.1766694883768776,-0.15867638060984446,0.06381869409044633,0.21208506151155532,0.018276652574795032,-0.1546280834562423,0.1361259449551355,-0.04624614532781382,-0.05346914977942306,0.08902253232306308,0.15485839867553547,-0.05099362694232849,0.0712610717409423,0.26240415527420047,0.009214120135729639,-0.010017346071679879,0.02219456663162259,-0.4150815393464285,-0.06545740686693104,0.025652155959799187,-0.04328304019795082,0.23084171362645936,0.14374528804116576,0.08825444115879981,0.017072230227471393,-0.021402406833233717,-0.10974312348435604,-0.07368506299470552,0.00007870474044871722,-0.047891249937645056,0.08278258726963167,0.012898121514096616,-0.13170641360035715,0.2508434570410525,0.06474288981538769,0.15956178077588667,-0.007059007365577332,0.25849635871999344,0.022487886958907233,0.21990683494854826,-0.15709241944976035,-0.007108424581334759,-0.018427697420001155,-0.010020367353560431,0.055846009252060264,0.08556447947049205,-0.090458539028589,-0.0633040355304103,0.0356385762697518,-0.12526611417889078,0.04174996568504335,0.10805725204904647,-0.05992625079438809,-0.07206607156574987,-0.021907065393201187,-0.05068937286418909,0.08411752015703798,0.06390764426278861,-0.17469797484342214,0.05499683351562439,0.12634646723069617,0.06937108026505194,0.026371603030236904,-0.002134471494236708,-0.05449687504602312,0.006422071856004263,-0.10799941689318927,0.01767595494403306,0.03935594936771452,-0.004322768354390264,0.19929984264306175,-0.09351268764114204,0.009212532083537568,-0.19024826795615415,0.040931377763165896,0.28931683851410217,0.13374098312371152,0.06988223799131467,-0.07005967192980919,-0.22676943384554604,-0.109982202819391,-0.7220641710258078,-0.16446809486871275,0.2344560458420851,-0.015308285201521037,0.3852879024451061,0.1243860807415525,0.12228859132188359,0.08437180041921982,0.06250238298639073,-0.06380889856054488,-0.1663443077325657,-0.052204785118129704,-0.04478264455108929,-0.1555561634409512,0.0789762448659129,-0.09363454279301713,0.5523760104449617,-0.092310644719394,0.319924073825514,-0.12740939569604348,0.2153549295384122,0.31263281207999427,-0.07995882620675535,-0.09109336145191806,-0.10313553301894965,0.14122349560339692,0.20466570048052188,-0.0764707040966734,0.05949841711554216,0.13199650362448873,0.34103124183304073,0.007008671539125394,0.5111879945006029,0.11434444399919745,0.18062449454442922,-0.060989915155387285,0.04056299305534929,0.2884537159581554,-0.29743598892818646,0.10135065542937054,-0.150650663710256,-0.11894892866821233,0.16566311822402122,0.1776461432873002,-0.048132998819723535,0.1535536848998154,-0.10605726737454663,-0.08279307351011894,0.03914925353259086,0.057941269086088376,-0.34663047174658634,-0.11297734438467129,-0.044992511284710324,0.19776655893637712,0.11867703416073488,-0.012669283526694873,0.04704426336249176,-0.06023308478984037,0.2553325690559681,0.13375800937056226,0.01322230531049198,-0.09252527609719298,0.09905286484708518,0.07682091163258577,-0.21484841918949657,0.13403386125312594,0.017147190494957963,0.14772019509567821,0.33848344783397794,0.23000010591946843,-0.009471528496647782,0.058423857430108354,-0.10777961086946962,-0.0956186418238163,-0.03736222515654018,0.12103430760201968,-0.037549934713697025,0.05333495495344012,0.052269620127394154,0.05323557988617193,0.3543469791475021,-0.06588388263821562,0.12961320923646552,-0.11487915652980309,-0.05714393634787596,0.04310968573447135,-0.17390095342769643,0.018870065437432235,-0.0005333269441099774,0.25510018423910163,0.3777171903565325,-0.04404807611165506,-0.02927764910353189,-0.26519187116918047,-0.16384981150605493,-0.017183376487456336,-0.2679676976617831,-0.04691774094496732,0.015606666217280718,-0.11422382580993698,0.16212382801188926,-0.11233239056283655,0.2154773214815752,0.09249065324753246,-0.1814795188925892,0.18688566658089606,0.08923552304266945,-0.1901624871645778,0.03601703323349717,-0.07841697411497058,0.19227226651197415,0.18339604993213618,0.4108617500104124,-0.040287545594463216,0.46087322402784076,0.018399429966414197,0.331391482392712,-0.029188283954060135,-0.16074368171731487,0.19331433650874816,0.0390340260225425,0.0842646972665379,0.21129122360663707,0.048921555764815904,0.08225469427053798,-0.07632945578546671,-0.05178923691947517,-0.08840923584532197,-0.0767738046476956,0.12417510531578205,-0.12147665286733746,-0.002483926799438308,0.14893849712936452,0.0926278523381951,-0.08921728037114734,0.040324965214274,0.1607074519150192,0.024967427252246016,0.015507018057493662,-0.06151578815927924,-0.00019285380924006384,-0.025319448595508,-0.019193878129754833,0.08092027851770968,0.08705086804530672,-0.11282830463674871,-0.004501212956707215,-0.041056375144795196,0.2606015590936102,-0.15838723791579923,-0.06295737202941437,0.12387193956003754,0.060144182452355525,0.31499009242138415,0.1608457259525076,-0.12294329357217391,-0.046254571951064395,0.12484423247984942,-0.3395757790118099,-0.2505363629409498,-0.16397535850666692,0.0140777416128417,-0.07960162319496455,-0.010165950961968453,-0.13623284170620142,-0.3629707220968676,0.46087061948290603,0.012507609398364258,-0.085485837376495,-0.038717887981288106,0.033283363774593136,-0.11147740612886495,0.10623972279473694,-0.06219037168155899,0.1953043775182673,0.3289997703257851,-0.07631464736459481,-0.09065393491397356,0.4041378094961694,0.27749548418229164,0.3333980695568922,0.024963408981483127,-0.1021195077773801,0.08223049660164064,-0.07019974939848911,0.06480875999519918,0.04181050285904701,0.1511620949987281,0.1250069460378265,0.07381533163601069,-0.1751115570041104,0.08695170360765282,0.1056794077761734,0.006140636117535184,-0.0256208632968792,-0.040091657410068135,-0.10363482474127679,0.03577731579934621,0.08394848078468652,0.1086485504498803,0.06938481505453205,0.17571701673398823,0.11971658206890279,-0.029046306277306692,-0.004914802440599125,-0.028672438117838095,-0.04179305453382635,0.014807138593204606,-0.009437622548136418,0.22148587805982006,-0.15244967985198074,0.1281894618605375,0.1362625923013709,-0.14581254445704167,-0.018955962020016818,0.05048270038930592,0.03393097635767011,-0.08277366043874781,0.09574910730845392,-0.047747199296289664,0.052116000897693776,0.13706161829176028,-0.15290547409029254,-0.11855610370027389,0.3460892814182164,0.10050693410241297,-0.1186756568064535,-0.006457105673883459,-0.04147459467300329,-0.10215122226427759,0.18918720832671945,-0.17518069185225246,0.04173268366988854,-0.13399303301074847,0.022293687286989754,-0.04372911978628114,0.23465791962628502,0.057064375599536976,0.2759110336752664,0.00593759822754606,-0.2752438758400457,0.0817980215958968,0.2391484481589814,-0.06297764052538245,0.20419067323873757,-0.003381824099665242,-0.07026989806806311,0.02720588879545316,-0.08329801685689166,0.10536267631838489,0.08538807286152567,0.013796918212198498,0.05570741255794122,-0.19962541621318233,-0.07816253796010071,0.1570867731576967,0.024408824725119536,0.07899378569548156,-0.1731677785539446,0.12860598786958358,-0.10552821778047261,-0.13207980439031516,0.05409268254109101,0.008224659019378355,0.05543385235795351,-0.0654786257630948,-0.29520893230874096,-0.0038422666794611315,-0.034732267728409434,0.1326707459448509,0.10278525142458327,-0.10518249278306738,0.22385940415802208,0.012260267369097749,0.2764598088659478,-0.11416434843384156,0.19060680189434864]},"biases2":{"v":1,"dim":[16],"data":[-0.10614313636106487,-0.15519586530284102,0.04478976648993531,-0.030503622246145997,0.3277506816687742,0.19101232707527638,0.008547744455662943,0.3200587736824646,0.4397562428603159,0.002683285502911704,0.4060537881391354,0.05993572641616392,0.13003561617216908,0.19013172824996002,-0.06394189020340894,0.03775341837615578]},"weights3":{"v":1,"dim":[4,16],"data":[0.008481280450322282,0.016081437820340754,-0.06934880574323134,-0.1787493085588606,0.29454483163279893,0.08826629534131694,0.1980899439568995,0.25479090777485514,-0.03719215682741608,0.10996132126115693,0.32928677113713767,0.024986565438674314,0.17702811346503644,0.05516943378108071,0.16500769212003302,0.01997618063762132,-0.07253407049890881,-0.19144600870445974,0.43831868064312424,0.17529417051197566,-0.5786290472353347,0.5122775183075459,-0.07888770361166599,1.001096254222677,-0.14379605868806114,0.48048107842349613,0.8081976260767655,0.27781202395205123,0.0410272682423234,-0.14893083156288486,-0.45905386959079153,0.28642599266057794,-0.032684440953757575,-0.07677631563158399,0.20207256691716274,0.04983732935007237,0.20629047755485758,-0.022427955720826058,0.02633308916186162,0.09206149275495203,0.14773524122897475,0.03266592423467072,0.29270548938704466,-0.08047969767242913,0.27120978174639876,0.2621521533912595,0.08250359240950947,0.1365220573573404,0.06936571749798136,-0.06637128233459898,0.4661777238241627,0.1424164795753218,0.19982807103651315,0.30661473670103195,0.07517347520030201,0.5663431188327471,1.014565533651402,0.4192961219102715,-0.47150950351511767,-0.0927324605188802,-0.9646405430096886,0.04925431418488177,-0.22496578918126964,-0.2759002793558901]},"biases3":{"v":1,"dim":[4],"data":[0.1882466350668592,-0.4629546868123482,0.175953675783489,0.6109405367765518]},"input_size":10,"hidden_size1":32,"hidden_size2":16,"output_size":4,"learning_rate":0.005}